34 128
34 -0.093820 -0.152922 0.100265 -0.035137 0.126474 -0.139110 0.031280 0.045765 -0.098066 0.080860 -0.106674 0.077014 0.087188 -0.246591 -0.065712 -0.113225 0.018591 -0.007348 0.035011 0.017346 0.221893 0.070082 0.148061 0.029089 -0.073412 0.028174 -0.000655 0.090232 0.055889 0.166643 -0.028794 0.105057 -0.129457 0.154136 -0.120206 -0.168050 0.115651 0.016734 -0.004777 -0.043669 -0.229025 0.048315 0.076642 0.129495 -0.032471 0.107749 -0.040743 -0.113542 -0.080937 0.036691 -0.021624 0.111896 0.026649 0.111965 -0.243403 -0.009453 -0.102409 0.045432 -0.076494 0.065663 0.135044 -0.166078 -0.143397 0.108397 0.075491 -0.125383 0.039152 -0.046924 0.036085 0.027394 0.000280 0.051806 0.032720 0.045125 0.023930 0.012486 0.163423 0.069030 0.072108 0.076622 -0.079423 -0.181130 0.001594 -0.213208 -0.072420 0.267371 -0.080888 -0.052891 -0.069272 0.004396 0.083956 0.064132 0.008282 -0.108037 -0.069927 0.214580 -0.205204 0.033949 0.128346 -0.123147 -0.311413 0.025996 -0.059135 0.050030 0.036346 0.102412 0.146099 0.066767 -0.051800 -0.060414 0.009565 -0.113759 -0.035164 0.032621 0.004375 -0.038504 -0.099950 0.075957 -0.107186 0.036425 -0.074005 -0.136717 -0.054187 -0.162844 0.068671 0.074187 -0.033776 -0.009664
1 -0.065166 -0.222321 0.068117 -0.040368 0.102596 -0.177892 -0.002501 0.154990 0.076730 0.059691 -0.090784 0.155848 0.085863 -0.236972 0.054177 -0.141012 -0.024586 -0.074645 0.011465 -0.047792 0.250377 0.028760 0.156709 0.043151 0.013813 0.030450 -0.009968 0.097133 0.079580 0.121799 -0.029782 0.144999 -0.141904 0.123816 -0.086848 -0.214474 0.085235 0.014873 -0.026815 -0.031754 -0.190320 -0.005857 0.154880 0.180464 -0.144137 0.114611 0.001502 -0.073184 -0.000190 0.105433 -0.148692 0.124552 0.015205 0.172996 -0.239467 -0.050425 -0.090139 0.104355 -0.050673 -0.005615 0.200079 -0.227727 -0.095985 0.113136 -0.033657 -0.012686 0.035714 -0.005011 0.054980 -0.075587 -0.073116 0.036916 0.024309 -0.011470 0.149507 0.058578 0.199300 0.018951 0.050828 -0.128403 -0.099079 -0.094418 0.003780 -0.136125 -0.169896 0.116031 0.059871 -0.057913 0.011888 0.054825 0.135501 0.013689 0.078045 -0.095433 -0.146443 0.147737 -0.111739 -0.151745 0.153185 0.009467 -0.231035 0.046565 -0.092477 0.026556 -0.033225 0.040273 0.129930 0.065930 -0.036162 -0.108117 -0.037792 -0.028730 -0.019450 0.053086 -0.044110 -0.042984 -0.082084 0.114315 -0.166183 -0.090688 -0.056144 -0.098372 0.049913 -0.186508 -0.082059 -0.066785 -0.041422 0.080560
33 -0.095856 -0.168555 0.100259 -0.035213 0.132753 -0.152289 0.027326 0.060447 -0.085076 0.083278 -0.106383 0.086744 0.091770 -0.262108 -0.055833 -0.117208 0.011355 -0.009807 0.029627 0.011173 0.240427 0.070395 0.156563 0.031077 -0.074781 0.031240 -0.006037 0.093168 0.060200 0.172885 -0.033442 0.116596 -0.133207 0.159578 -0.127755 -0.184999 0.117472 0.016272 -0.014813 -0.045220 -0.240888 0.047700 0.084532 0.134279 -0.041308 0.120996 -0.041376 -0.116645 -0.084279 0.039711 -0.035166 0.125181 0.028037 0.114250 -0.255893 -0.008512 -0.108868 0.050286 -0.074482 0.066735 0.153848 -0.185115 -0.146656 0.117001 0.074616 -0.128426 0.045239 -0.045628 0.038097 0.026990 0.000062 0.054570 0.036231 0.044560 0.031599 0.019300 0.177513 0.066876 0.074285 0.066916 -0.078115 -0.185518 0.000896 -0.221656 -0.085785 0.272216 -0.077826 -0.057955 -0.068144 0.008170 0.099286 0.065320 0.015751 -0.112310 -0.071950 0.224257 -0.211282 0.017018 0.143776 -0.122017 -0.330623 0.023430 -0.067919 0.060046 0.037821 0.101720 0.152788 0.072284 -0.049289 -0.069567 0.005157 -0.114825 -0.036536 0.028410 0.003422 -0.041123 -0.106307 0.075445 -0.119515 0.024338 -0.074238 -0.139645 -0.048369 -0.174939 0.066778 0.066618 -0.043819 -0.008463
3 -0.082413 -0.188444 0.087346 -0.037138 0.115177 -0.159147 0.015833 0.100216 -0.016132 0.070662 -0.095723 0.114891 0.083138 -0.247879 -0.004679 -0.130567 -0.000123 -0.046994 0.018740 -0.017973 0.238590 0.053293 0.152869 0.041288 -0.026283 0.028381 -0.008578 0.098980 0.072062 0.153083 -0.030813 0.123822 -0.139183 0.143761 -0.105412 -0.200233 0.106866 0.023922 -0.018119 -0.033460 -0.213420 0.017048 0.116257 0.160889 -0.094541 0.118115 -0.015666 -0.096446 -0.049843 0.075152 -0.084147 0.120363 0.017298 0.145976 -0.249578 -0.036729 -0.103602 0.074595 -0.067837 0.032397 0.171339 -0.200820 -0.120149 0.119809 0.022476 -0.074146 0.041116 -0.024452 0.050291 -0.031287 -0.036988 0.051204 0.023480 0.017432 0.096324 0.035365 0.189210 0.045607 0.063641 -0.027738 -0.091588 -0.135192 0.002438 -0.177595 -0.125241 0.200162 -0.007473 -0.056808 -0.033431 0.029240 0.111156 0.040169 0.045726 -0.104274 -0.114220 0.187913 -0.165196 -0.056269 0.148436 -0.058993 -0.279734 0.035888 -0.085890 0.042097 0.003595 0.078172 0.142034 0.066339 -0.040442 -0.091926 -0.011510 -0.073181 -0.027856 0.044079 -0.017599 -0.037623 -0.097913 0.098557 -0.133104 -0.030045 -0.067551 -0.128011 -0.000345 -0.182682 -0.011353 0.003427 -0.039075 0.038590
2 -0.061451 -0.196339 0.076098 -0.039775 0.099495 -0.162671 0.005111 0.124419 0.023887 0.062160 -0.090856 0.134864 0.088067 -0.236770 0.026931 -0.136681 -0.019029 -0.052664 0.015713 -0.031998 0.236003 0.041942 0.153902 0.040271 -0.011529 0.035989 -0.006891 0.098818 0.080585 0.134329 -0.027976 0.130170 -0.146677 0.139156 -0.093716 -0.199563 0.093848 0.012127 -0.016685 -0.030018 -0.186399 0.003162 0.133086 0.169409 -0.121529 0.112444 -0.014868 -0.081871 -0.021308 0.085606 -0.120754 0.109849 0.019430 0.165337 -0.244498 -0.044717 -0.091395 0.094797 -0.066243 0.012190 0.180727 -0.208134 -0.107121 0.107296 -0.010362 -0.033256 0.036662 -0.019483 0.048898 -0.055088 -0.060481 0.041805 0.029342 -0.002136 0.124540 0.051904 0.190541 0.027767 0.058637 -0.084821 -0.095555 -0.116818 -0.004108 -0.152422 -0.143069 0.157071 0.028726 -0.057765 -0.001926 0.039082 0.123840 0.029208 0.061949 -0.110058 -0.138297 0.159312 -0.135864 -0.107614 0.140651 -0.013666 -0.238802 0.035097 -0.084135 0.028304 -0.017257 0.049910 0.139647 0.071857 -0.042282 -0.100245 -0.032458 -0.047720 -0.016470 0.049794 -0.037456 -0.041473 -0.087903 0.110557 -0.153300 -0.065968 -0.061572 -0.117063 0.029144 -0.183841 -0.045297 -0.032097 -0.034781 0.062102
32 -0.097213 -0.172555 0.093926 -0.038272 0.130453 -0.155393 0.025717 0.059554 -0.079248 0.083479 -0.105673 0.087320 0.092280 -0.258923 -0.051700 -0.119292 0.017159 -0.025911 0.030337 0.008443 0.245047 0.072299 0.148211 0.035949 -0.071418 0.026555 -0.010728 0.098807 0.060129 0.170500 -0.034942 0.113413 -0.124661 0.150083 -0.132650 -0.187992 0.122693 0.025804 -0.014949 -0.056914 -0.241312 0.043717 0.081906 0.136221 -0.050400 0.127243 -0.037700 -0.105100 -0.079383 0.042382 -0.040451 0.131350 0.018109 0.126866 -0.263563 -0.012082 -0.101791 0.052784 -0.078760 0.063409 0.160290 -0.190034 -0.144067 0.126513 0.053348 -0.124377 0.035033 -0.034210 0.037552 0.014682 -0.014075 0.062094 0.029087 0.039889 0.039538 0.018214 0.176184 0.066292 0.071256 0.055257 -0.086066 -0.179206 0.009921 -0.211209 -0.091920 0.264803 -0.066241 -0.058833 -0.062031 0.004198 0.098762 0.059403 0.025979 -0.115285 -0.068160 0.221148 -0.204095 0.007275 0.140877 -0.126157 -0.326955 0.029951 -0.072450 0.061485 0.039147 0.114410 0.157881 0.068314 -0.047903 -0.065729 0.006190 -0.117079 -0.033359 0.041551 -0.002160 -0.041295 -0.104491 0.076100 -0.108130 0.011239 -0.075555 -0.143970 -0.049410 -0.181253 0.061972 0.059122 -0.051672 0.000960
4 -0.075608 -0.199476 0.079082 -0.038027 0.114807 -0.173365 0.001855 0.126983 0.022356 0.064358 -0.089110 0.132544 0.092067 -0.247177 0.017296 -0.134618 -0.008486 -0.061203 0.018401 -0.024666 0.251496 0.044537 0.153965 0.041260 -0.012560 0.032620 -0.014982 0.099537 0.078457 0.143922 -0.032069 0.131715 -0.140198 0.135043 -0.104486 -0.213808 0.106082 0.023443 -0.024560 -0.032222 -0.207223 0.001517 0.133051 0.174778 -0.112929 0.121097 -0.013764 -0.088356 -0.034766 0.082541 -0.111413 0.122347 0.017958 0.161408 -0.255054 -0.039606 -0.095322 0.087037 -0.063114 0.015677 0.194874 -0.220523 -0.109938 0.122023 0.000606 -0.046440 0.034129 -0.015509 0.052458 -0.047599 -0.055206 0.051891 0.025737 0.001156 0.123414 0.044641 0.194510 0.040063 0.055391 -0.065091 -0.094291 -0.127022 0.004952 -0.159661 -0.144210 0.170358 0.023865 -0.063342 -0.012528 0.040372 0.120882 0.026413 0.058026 -0.106527 -0.125400 0.175691 -0.148325 -0.098272 0.152774 -0.034216 -0.269495 0.040975 -0.086030 0.048247 -0.013242 0.067620 0.138169 0.070678 -0.039310 -0.099675 -0.018604 -0.060057 -0.021688 0.051661 -0.031482 -0.040524 -0.093210 0.103247 -0.145762 -0.060402 -0.058917 -0.117644 0.014650 -0.192752 -0.041687 -0.022635 -0.041083 0.057503
24 -0.086264 -0.170472 0.096666 -0.033807 0.123620 -0.154260 0.019787 0.072612 -0.056834 0.079349 -0.097813 0.092602 0.094105 -0.255210 -0.039162 -0.124313 0.008569 -0.029939 0.030811 0.001411 0.239438 0.064160 0.151494 0.040235 -0.054322 0.034528 -0.008661 0.092348 0.062398 0.167803 -0.036867 0.116627 -0.135397 0.145606 -0.119903 -0.192987 0.118211 0.018950 -0.015307 -0.049731 -0.228216 0.035551 0.092042 0.147187 -0.060692 0.124306 -0.037956 -0.100427 -0.067852 0.050753 -0.052927 0.126094 0.016727 0.135358 -0.252342 -0.013751 -0.099804 0.060486 -0.076401 0.051508 0.163658 -0.194394 -0.132532 0.120172 0.045173 -0.108847 0.037530 -0.031575 0.038157 0.006987 -0.018507 0.058872 0.025784 0.032788 0.058127 0.021566 0.175048 0.057899 0.067986 0.033386 -0.082910 -0.164259 0.005760 -0.198078 -0.102768 0.238126 -0.051460 -0.055241 -0.051348 0.016654 0.100490 0.051786 0.031336 -0.113101 -0.082431 0.212689 -0.188069 -0.009074 0.142956 -0.101907 -0.312305 0.036186 -0.069837 0.059116 0.023919 0.101992 0.150078 0.072611 -0.044966 -0.072864 0.003436 -0.104172 -0.031441 0.040426 -0.012940 -0.044541 -0.102332 0.079351 -0.117676 0.003311 -0.069767 -0.137910 -0.033726 -0.182952 0.040083 0.046503 -0.042975 0.013588
14 -0.074880 -0.183094 0.084325 -0.039878 0.109492 -0.152923 0.008628 0.096182 -0.012227 0.070070 -0.095681 0.114557 0.084771 -0.236097 -0.001160 -0.122571 -0.004015 -0.040408 0.022610 -0.017980 0.233903 0.052729 0.148076 0.038043 -0.031414 0.034334 -0.003764 0.095980 0.065636 0.146209 -0.027509 0.123173 -0.134486 0.140326 -0.099611 -0.192540 0.098424 0.016932 -0.019056 -0.036053 -0.205963 0.016597 0.112874 0.154735 -0.091116 0.116541 -0.021239 -0.087414 -0.041546 0.072592 -0.091891 0.115887 0.018678 0.144567 -0.240614 -0.032467 -0.097766 0.077060 -0.069219 0.026279 0.170269 -0.199615 -0.114287 0.108410 0.014566 -0.065005 0.039422 -0.028017 0.044721 -0.027460 -0.042305 0.049663 0.024778 0.017856 0.095453 0.039388 0.181580 0.043342 0.060545 -0.033798 -0.089978 -0.134420 0.004166 -0.167275 -0.124818 0.192329 -0.007480 -0.058643 -0.024969 0.027551 0.111192 0.036368 0.046863 -0.106476 -0.109807 0.179624 -0.158192 -0.060080 0.143024 -0.053152 -0.269297 0.032634 -0.079037 0.044806 -0.000180 0.072722 0.141898 0.071734 -0.043735 -0.088522 -0.019825 -0.073032 -0.026086 0.045753 -0.019321 -0.041716 -0.094694 0.092005 -0.136021 -0.034244 -0.063453 -0.123338 0.000521 -0.179262 -0.006445 -0.000432 -0.042357 0.035698
7 -0.060445 -0.226786 0.058476 -0.035878 0.101999 -0.176761 0.000898 0.160868 0.087538 0.057778 -0.087257 0.161373 0.083269 -0.238314 0.063711 -0.138211 -0.023962 -0.083605 -0.000558 -0.048159 0.258983 0.026279 0.159436 0.046472 0.021948 0.020117 -0.023538 0.091173 0.074339 0.126698 -0.022121 0.149460 -0.140557 0.114540 -0.090050 -0.220067 0.094036 0.021040 -0.038374 -0.028796 -0.198066 -0.002108 0.158637 0.183965 -0.152143 0.125148 0.011950 -0.073087 -0.002701 0.109011 -0.150399 0.133814 0.016452 0.175192 -0.244411 -0.056014 -0.092795 0.098787 -0.042397 -0.007264 0.208799 -0.232509 -0.090302 0.123429 -0.034782 -0.013305 0.035538 -0.001469 0.064281 -0.086927 -0.079326 0.048234 0.013053 -0.013473 0.164048 0.062543 0.200833 0.024587 0.044612 -0.135057 -0.101373 -0.085410 0.007073 -0.127541 -0.180221 0.118394 0.066595 -0.057774 0.006204 0.059996 0.142314 0.010456 0.087779 -0.093237 -0.149496 0.157396 -0.107579 -0.161206 0.155835 0.008657 -0.237324 0.049252 -0.106343 0.029447 -0.039955 0.035631 0.129510 0.061967 -0.029483 -0.111861 -0.033818 -0.022261 -0.023741 0.047746 -0.044605 -0.041059 -0.088229 0.113448 -0.166455 -0.093662 -0.056791 -0.099800 0.062217 -0.195273 -0.094511 -0.072897 -0.041395 0.089167
28 -0.093579 -0.176551 0.100887 -0.038586 0.124581 -0.153581 0.021686 0.068836 -0.067193 0.079219 -0.101572 0.096655 0.093828 -0.254813 -0.043019 -0.125908 0.007651 -0.028257 0.033154 0.004516 0.238764 0.065376 0.153687 0.037133 -0.061527 0.035835 -0.009308 0.097947 0.068387 0.166046 -0.035847 0.119944 -0.132839 0.155176 -0.122421 -0.195255 0.117909 0.020786 -0.011782 -0.047181 -0.232257 0.030968 0.093213 0.147693 -0.061974 0.122171 -0.041563 -0.106111 -0.074035 0.048623 -0.058650 0.125520 0.024131 0.128674 -0.255639 -0.016779 -0.105212 0.055905 -0.083030 0.056171 0.163592 -0.195482 -0.134422 0.122531 0.050892 -0.109250 0.038203 -0.032256 0.035487 0.003794 -0.018579 0.058010 0.027769 0.029392 0.054154 0.022923 0.177377 0.062651 0.066768 0.037299 -0.085614 -0.173169 0.005015 -0.203543 -0.099020 0.248646 -0.052603 -0.055924 -0.053413 0.014452 0.102377 0.054228 0.026097 -0.116834 -0.080769 0.207706 -0.192973 -0.004820 0.141871 -0.104624 -0.312188 0.033985 -0.074316 0.055271 0.030139 0.102682 0.154019 0.075458 -0.043717 -0.077351 0.000438 -0.102118 -0.033877 0.039141 -0.007962 -0.044131 -0.103457 0.080393 -0.120381 0.000008 -0.071054 -0.138327 -0.035934 -0.177628 0.039239 0.044409 -0.043140 0.010507
30 -0.090726 -0.173028 0.094952 -0.034729 0.124426 -0.149552 0.029669 0.060937 -0.078341 0.083718 -0.110521 0.089737 0.088292 -0.259039 -0.054477 -0.123541 0.013088 -0.019516 0.027262 0.011561 0.235569 0.066105 0.156551 0.030179 -0.063714 0.027577 -0.002089 0.092633 0.056202 0.168976 -0.033437 0.110023 -0.131392 0.148104 -0.123765 -0.177969 0.115112 0.020366 -0.010335 -0.051688 -0.232856 0.043208 0.087966 0.141986 -0.044903 0.117141 -0.036216 -0.113761 -0.077338 0.045973 -0.038202 0.123472 0.024139 0.116658 -0.246756 -0.010239 -0.108109 0.054209 -0.071837 0.061007 0.152072 -0.185361 -0.137331 0.116562 0.068679 -0.121751 0.038434 -0.039966 0.039094 0.012975 -0.004674 0.055608 0.033764 0.039270 0.041899 0.014474 0.177761 0.068961 0.070947 0.059956 -0.086798 -0.178041 -0.001792 -0.212097 -0.088214 0.260601 -0.070347 -0.054166 -0.065530 0.010731 0.098792 0.055761 0.019323 -0.106075 -0.073925 0.216991 -0.202860 0.013336 0.140149 -0.117561 -0.313907 0.029720 -0.067957 0.048841 0.030646 0.100670 0.149599 0.071734 -0.053375 -0.069629 0.003652 -0.112973 -0.038281 0.031520 0.003208 -0.041922 -0.106654 0.078842 -0.117839 0.024664 -0.078235 -0.134601 -0.045805 -0.172325 0.058045 0.063279 -0.034495 0.001471
6 -0.060248 -0.240745 0.058881 -0.031563 0.106159 -0.185668 -0.000916 0.176300 0.102793 0.058467 -0.083839 0.172513 0.083530 -0.240524 0.078398 -0.146109 -0.031548 -0.096789 -0.000298 -0.055365 0.270849 0.023299 0.166842 0.042885 0.029685 0.020349 -0.025022 0.091013 0.080596 0.132613 -0.023745 0.151603 -0.140359 0.115665 -0.087295 -0.231862 0.098920 0.030942 -0.045256 -0.029129 -0.200858 -0.003269 0.172141 0.188904 -0.172311 0.133309 0.016788 -0.075520 0.003908 0.120519 -0.163040 0.141432 0.011906 0.185685 -0.248740 -0.067201 -0.096393 0.107283 -0.040896 -0.021330 0.227254 -0.245975 -0.090092 0.130474 -0.042214 -0.011322 0.031154 -0.001870 0.068503 -0.100304 -0.085351 0.047768 0.014217 -0.019370 0.186008 0.067282 0.217528 0.025474 0.042515 -0.153556 -0.113125 -0.082226 0.011363 -0.132239 -0.194565 0.112417 0.089835 -0.064209 0.013279 0.065293 0.153234 0.008677 0.100239 -0.094344 -0.163361 0.160831 -0.108609 -0.184953 0.173968 0.013243 -0.240599 0.051673 -0.112553 0.031663 -0.047499 0.039804 0.139803 0.067794 -0.031410 -0.125579 -0.036730 -0.019025 -0.023527 0.056322 -0.047514 -0.038188 -0.091885 0.124374 -0.178704 -0.113935 -0.056526 -0.113674 0.075292 -0.218632 -0.113155 -0.084039 -0.044739 0.094366
9 -0.081754 -0.177059 0.082525 -0.038799 0.115100 -0.152581 0.015613 0.088056 -0.026964 0.070388 -0.096379 0.110704 0.086567 -0.244446 -0.018086 -0.124851 -0.002862 -0.031980 0.022064 -0.006669 0.229387 0.058461 0.153297 0.032573 -0.043196 0.033398 -0.009255 0.088771 0.064450 0.150955 -0.028800 0.122515 -0.133588 0.138341 -0.104221 -0.188877 0.107855 0.016448 -0.018338 -0.035808 -0.214301 0.021171 0.104945 0.150853 -0.078311 0.112853 -0.026396 -0.097341 -0.055553 0.057888 -0.075435 0.117719 0.019064 0.135817 -0.240142 -0.026903 -0.099286 0.068166 -0.070205 0.035919 0.163831 -0.193987 -0.125725 0.114223 0.033841 -0.083412 0.039844 -0.030003 0.042192 -0.013120 -0.027954 0.051790 0.033046 0.018987 0.079326 0.029612 0.176875 0.052562 0.059795 -0.002335 -0.083540 -0.148457 -0.001070 -0.187267 -0.113877 0.210696 -0.024165 -0.056312 -0.038828 0.023367 0.107738 0.042522 0.041513 -0.101477 -0.099990 0.184857 -0.167760 -0.038874 0.139467 -0.070023 -0.284477 0.029335 -0.077408 0.045218 0.012237 0.079112 0.139896 0.071109 -0.047944 -0.084136 -0.007877 -0.081319 -0.025426 0.037866 -0.015267 -0.042326 -0.098905 0.093625 -0.130744 -0.015026 -0.068406 -0.128020 -0.015663 -0.175807 0.009331 0.022172 -0.040182 0.027124
8 -0.078289 -0.198293 0.088961 -0.038879 0.113639 -0.163957 0.014553 0.105666 -0.011424 0.074587 -0.100275 0.121938 0.088359 -0.251910 0.000615 -0.136163 -0.004886 -0.043430 0.025504 -0.014737 0.245232 0.052251 0.157289 0.036289 -0.030608 0.038016 -0.007708 0.101657 0.071766 0.153766 -0.033345 0.129572 -0.141368 0.148201 -0.109187 -0.203379 0.109063 0.016341 -0.014496 -0.034821 -0.215767 0.017509 0.116462 0.165855 -0.094250 0.124034 -0.025077 -0.096775 -0.046706 0.074971 -0.095927 0.120087 0.024789 0.151987 -0.256644 -0.032543 -0.104251 0.077738 -0.071954 0.028382 0.176847 -0.211736 -0.121836 0.118858 0.020817 -0.072610 0.042244 -0.027912 0.046775 -0.031053 -0.043189 0.047456 0.027776 0.013732 0.095961 0.039999 0.188275 0.043410 0.062666 -0.032082 -0.090481 -0.145605 -0.001806 -0.178504 -0.132019 0.203188 -0.004381 -0.058652 -0.026787 0.027185 0.119057 0.037260 0.048084 -0.109757 -0.116172 0.184002 -0.165850 -0.068693 0.145204 -0.058509 -0.277424 0.031683 -0.085854 0.041343 0.005132 0.070762 0.147572 0.068110 -0.045752 -0.093902 -0.020967 -0.072215 -0.024304 0.043832 -0.026058 -0.038964 -0.098873 0.098697 -0.144791 -0.035281 -0.069688 -0.130137 0.003308 -0.185557 -0.006707 -0.001729 -0.038987 0.036535
5 -0.066679 -0.228175 0.065093 -0.036440 0.111398 -0.180695 0.006178 0.148080 0.069010 0.060507 -0.087455 0.158780 0.083671 -0.242801 0.051903 -0.144898 -0.025304 -0.078932 0.004930 -0.039926 0.264272 0.036110 0.160287 0.047091 0.009902 0.023098 -0.018573 0.092675 0.075710 0.134785 -0.029177 0.145185 -0.145088 0.127264 -0.091471 -0.222916 0.099812 0.024902 -0.034182 -0.028854 -0.200083 0.002457 0.150962 0.180464 -0.144808 0.126628 0.003738 -0.081873 -0.014462 0.101723 -0.139818 0.135764 0.021972 0.166714 -0.246733 -0.056508 -0.095933 0.096217 -0.047427 -0.005896 0.205055 -0.234473 -0.097231 0.125043 -0.022967 -0.027174 0.039132 -0.011482 0.063179 -0.076498 -0.070884 0.046068 0.018526 -0.012739 0.152705 0.053912 0.202627 0.025149 0.046193 -0.115719 -0.103986 -0.102375 0.003445 -0.146887 -0.174762 0.137071 0.056369 -0.057143 0.001488 0.053668 0.140625 0.016962 0.080510 -0.097021 -0.149025 0.166854 -0.128174 -0.144439 0.163964 -0.002175 -0.253894 0.045795 -0.102127 0.029369 -0.034344 0.043893 0.139583 0.065379 -0.038707 -0.113404 -0.034882 -0.036009 -0.023657 0.045991 -0.041014 -0.036960 -0.089407 0.116781 -0.163098 -0.083080 -0.059792 -0.109775 0.050007 -0.204270 -0.079856 -0.053566 -0.045256 0.080620
11 -0.059677 -0.237449 0.058845 -0.032521 0.104384 -0.183013 -0.005330 0.176229 0.107374 0.051768 -0.084492 0.172871 0.079314 -0.229204 0.082249 -0.148092 -0.034380 -0.092832 -0.002790 -0.057189 0.265805 0.022954 0.167480 0.044901 0.027515 0.020578 -0.026989 0.092985 0.076092 0.120539 -0.021579 0.151823 -0.139599 0.108627 -0.079811 -0.220615 0.098026 0.027078 -0.037925 -0.017412 -0.185145 -0.003825 0.172516 0.189286 -0.168967 0.127411 0.017293 -0.067017 0.000286 0.120152 -0.158534 0.133116 0.015082 0.182733 -0.241624 -0.069517 -0.093580 0.113603 -0.044601 -0.020933 0.215695 -0.244414 -0.082086 0.126375 -0.046080 -0.001008 0.030009 -0.003535 0.074492 -0.102786 -0.085869 0.044078 0.013771 -0.027436 0.185874 0.067667 0.211676 0.015162 0.037759 -0.159496 -0.104856 -0.075519 0.005741 -0.128320 -0.198768 0.107517 0.093592 -0.058111 0.019377 0.067394 0.145154 0.003081 0.097078 -0.090048 -0.162959 0.148517 -0.101685 -0.182232 0.164775 0.024669 -0.225664 0.056952 -0.109818 0.025088 -0.049924 0.029248 0.138826 0.058960 -0.032220 -0.126072 -0.042338 -0.013309 -0.026648 0.050655 -0.048508 -0.042592 -0.094313 0.130732 -0.179761 -0.114900 -0.055102 -0.111537 0.079504 -0.212481 -0.114236 -0.091178 -0.046346 0.100369
26 -0.091911 -0.170939 0.100840 -0.039704 0.132091 -0.160678 0.024777 0.062997 -0.079236 0.080091 -0.106017 0.084616 0.099981 -0.263531 -0.051066 -0.122071 0.014746 -0.026031 0.031953 0.008783 0.248301 0.069289 0.158412 0.039702 -0.068595 0.029623 -0.013276 0.093014 0.060765 0.175203 -0.033786 0.116878 -0.128709 0.146520 -0.132781 -0.195925 0.121502 0.019587 -0.015826 -0.055120 -0.238234 0.034705 0.082107 0.139185 -0.054201 0.131936 -0.046786 -0.106483 -0.079551 0.050869 -0.043076 0.133119 0.018256 0.125499 -0.262330 -0.012380 -0.101106 0.056958 -0.085622 0.063046 0.167018 -0.197811 -0.141003 0.128744 0.056854 -0.121023 0.040162 -0.039060 0.038123 0.016523 -0.012782 0.059936 0.027535 0.036103 0.049358 0.014805 0.175630 0.065602 0.071117 0.048469 -0.089794 -0.176593 0.008318 -0.212125 -0.092296 0.262934 -0.067476 -0.058859 -0.060992 0.009996 0.101499 0.057091 0.029143 -0.111941 -0.071063 0.217790 -0.202875 0.006004 0.149358 -0.120779 -0.323708 0.033652 -0.068909 0.065459 0.037811 0.112402 0.158865 0.074522 -0.039567 -0.066420 0.000192 -0.114459 -0.034014 0.043677 -0.004773 -0.045469 -0.103219 0.073834 -0.111393 0.002221 -0.073915 -0.145321 -0.048991 -0.189007 0.055330 0.061590 -0.050110 -0.002283
31 -0.078819 -0.168592 0.091733 -0.035419 0.112289 -0.151106 0.017870 0.073237 -0.049622 0.073705 -0.095415 0.101719 0.089384 -0.244629 -0.026545 -0.124016 -0.001644 -0.024823 0.028883 -0.004365 0.225972 0.055399 0.142547 0.037910 -0.045743 0.033721 -0.000705 0.096265 0.064391 0.150783 -0.033677 0.117919 -0.135457 0.147455 -0.106490 -0.178366 0.101620 0.013704 -0.008269 -0.044990 -0.210346 0.029924 0.095689 0.140004 -0.067140 0.111159 -0.033045 -0.101372 -0.057927 0.057184 -0.067437 0.115232 0.022097 0.125821 -0.237215 -0.022452 -0.095462 0.059831 -0.074134 0.040461 0.156768 -0.183563 -0.128091 0.104524 0.036841 -0.090447 0.034999 -0.033587 0.035544 -0.004586 -0.022739 0.044983 0.030520 0.026837 0.064166 0.027183 0.176293 0.049710 0.069620 0.013545 -0.080619 -0.153613 -0.001993 -0.187943 -0.098300 0.216614 -0.040248 -0.056893 -0.042217 0.014407 0.096892 0.051188 0.033527 -0.106603 -0.095884 0.188424 -0.176055 -0.024514 0.132126 -0.075998 -0.283369 0.027618 -0.069171 0.040491 0.015822 0.083021 0.139289 0.070203 -0.041867 -0.074764 -0.010606 -0.089440 -0.030219 0.034100 -0.010310 -0.035771 -0.096072 0.086491 -0.125115 -0.003053 -0.069415 -0.124670 -0.024548 -0.170697 0.023689 0.032115 -0.040389 0.016046
25 -0.089435 -0.171308 0.087875 -0.038821 0.116609 -0.152739 0.016027 0.069505 -0.047719 0.075708 -0.099185 0.090799 0.089373 -0.244032 -0.034992 -0.122305 0.010033 -0.032299 0.030654 0.003751 0.240684 0.059922 0.150641 0.038595 -0.053319 0.026788 -0.006926 0.091231 0.058330 0.163169 -0.030237 0.115079 -0.126608 0.139475 -0.123373 -0.187960 0.108993 0.024807 -0.019010 -0.048143 -0.228896 0.033600 0.089653 0.138767 -0.058592 0.127368 -0.031421 -0.097460 -0.063030 0.052798 -0.062255 0.126487 0.021842 0.131334 -0.255556 -0.018116 -0.096986 0.054898 -0.073373 0.054296 0.162163 -0.189224 -0.128635 0.116089 0.041081 -0.103866 0.036378 -0.031175 0.035207 0.003694 -0.020791 0.051869 0.030262 0.034074 0.057866 0.019552 0.170223 0.060164 0.067385 0.022932 -0.083747 -0.162283 0.005522 -0.196870 -0.101721 0.230328 -0.044762 -0.063365 -0.053646 0.011041 0.099180 0.047583 0.034677 -0.110304 -0.082871 0.203945 -0.183640 -0.015683 0.141863 -0.094428 -0.304031 0.032031 -0.075579 0.059407 0.026124 0.093124 0.146312 0.071111 -0.040710 -0.075758 -0.002122 -0.097296 -0.028446 0.036999 -0.014588 -0.042503 -0.095161 0.077535 -0.117888 -0.004846 -0.066317 -0.127004 -0.032063 -0.179575 0.032053 0.044852 -0.047361 0.010416
29 -0.088295 -0.187292 0.092237 -0.041562 0.126341 -0.165349 0.017570 0.085819 -0.040395 0.078233 -0.102267 0.111165 0.091600 -0.261152 -0.024915 -0.132033 -0.000735 -0.037915 0.029769 -0.007392 0.250123 0.058361 0.153395 0.038360 -0.050483 0.031367 -0.007035 0.097533 0.071494 0.164033 -0.031646 0.123353 -0.137586 0.150200 -0.121027 -0.199064 0.117000 0.020043 -0.014579 -0.048483 -0.225364 0.029379 0.103567 0.152596 -0.072414 0.127687 -0.031264 -0.104536 -0.062918 0.062479 -0.073508 0.125546 0.020059 0.140771 -0.263954 -0.019281 -0.100003 0.071048 -0.072830 0.047031 0.174272 -0.206531 -0.134404 0.120592 0.034684 -0.095083 0.036385 -0.032660 0.044908 -0.005456 -0.030412 0.053579 0.026809 0.028272 0.073875 0.032552 0.190208 0.054534 0.068040 0.006035 -0.092949 -0.158262 0.004766 -0.198337 -0.112525 0.229661 -0.031494 -0.062650 -0.043840 0.018415 0.111465 0.044955 0.035561 -0.110828 -0.094182 0.206471 -0.185373 -0.030872 0.145602 -0.085862 -0.304300 0.035907 -0.077083 0.052153 0.016545 0.089097 0.146242 0.069799 -0.044136 -0.080441 -0.005039 -0.090707 -0.033746 0.039573 -0.017215 -0.046367 -0.101517 0.086431 -0.127940 -0.013325 -0.071449 -0.131608 -0.023747 -0.186711 0.022450 0.030005 -0.044163 0.018753
20 -0.072292 -0.203431 0.079826 -0.037509 0.107250 -0.170714 0.010841 0.122311 0.014703 0.065708 -0.096671 0.130142 0.091476 -0.244752 0.017842 -0.136695 -0.017027 -0.052694 0.016148 -0.030713 0.248235 0.043005 0.158880 0.040522 -0.014639 0.035584 -0.004882 0.096572 0.075642 0.138877 -0.033074 0.131880 -0.141759 0.136666 -0.095612 -0.202972 0.105101 0.015233 -0.023761 -0.037111 -0.206074 0.008492 0.128249 0.169239 -0.110644 0.119846 -0.010538 -0.086848 -0.030459 0.081959 -0.115205 0.122058 0.022231 0.155100 -0.249221 -0.040781 -0.097444 0.083505 -0.066641 0.017790 0.189695 -0.212697 -0.110431 0.117212 0.001104 -0.051206 0.037166 -0.018297 0.050386 -0.043555 -0.055000 0.048124 0.023760 0.003587 0.118425 0.048540 0.195290 0.035253 0.059143 -0.062376 -0.093730 -0.127416 0.000852 -0.166922 -0.141603 0.175336 0.015787 -0.057059 -0.016577 0.041044 0.125566 0.029881 0.058813 -0.106598 -0.125863 0.172307 -0.143746 -0.095575 0.145231 -0.029248 -0.262442 0.035811 -0.089570 0.040142 -0.012705 0.062744 0.139913 0.068897 -0.037961 -0.096487 -0.025984 -0.054987 -0.024368 0.049187 -0.032700 -0.043566 -0.091933 0.107874 -0.149875 -0.053731 -0.063953 -0.116294 0.020619 -0.190981 -0.033625 -0.020287 -0.042634 0.055675
15 -0.094233 -0.181060 0.097812 -0.042209 0.127963 -0.152235 0.026202 0.070568 -0.061628 0.078831 -0.104844 0.100145 0.090398 -0.257210 -0.038665 -0.126345 0.003455 -0.027622 0.025263 -0.001435 0.245462 0.066314 0.156064 0.036719 -0.060943 0.030000 -0.009519 0.095022 0.062646 0.161153 -0.034976 0.120351 -0.131414 0.148693 -0.119684 -0.187073 0.111728 0.017268 -0.009436 -0.045326 -0.234547 0.037799 0.095134 0.145031 -0.054630 0.123035 -0.036538 -0.109949 -0.071504 0.050339 -0.051238 0.123681 0.022590 0.127631 -0.254459 -0.020058 -0.108442 0.055975 -0.071117 0.056425 0.162931 -0.188295 -0.135820 0.114173 0.056495 -0.105348 0.041822 -0.037077 0.043379 0.007630 -0.011912 0.051724 0.035267 0.029629 0.052089 0.021372 0.186432 0.060848 0.064987 0.033069 -0.086210 -0.167590 0.001695 -0.209285 -0.103329 0.245140 -0.055050 -0.060485 -0.055290 0.016428 0.104738 0.057638 0.029637 -0.110086 -0.090376 0.214189 -0.193743 -0.005887 0.145728 -0.099671 -0.310947 0.029983 -0.074045 0.050966 0.027081 0.091990 0.151812 0.072093 -0.049434 -0.078725 -0.001153 -0.102830 -0.037293 0.031846 -0.006655 -0.036973 -0.101802 0.089922 -0.128980 0.010436 -0.072527 -0.138176 -0.031919 -0.178650 0.037109 0.047211 -0.038824 0.011354
17 -0.068097 -0.224447 0.068896 -0.033009 0.104910 -0.179149 0.005993 0.150957 0.067468 0.066265 -0.088850 0.158880 0.086163 -0.239999 0.046300 -0.138289 -0.020030 -0.081373 0.003528 -0.037709 0.260692 0.031439 0.165352 0.041452 0.011770 0.027769 -0.020384 0.096655 0.077884 0.141126 -0.025865 0.145754 -0.140415 0.125836 -0.095759 -0.225228 0.104106 0.027908 -0.035118 -0.026490 -0.207071 -0.000958 0.150434 0.185669 -0.145025 0.125185 0.006063 -0.078785 -0.017322 0.105717 -0.140920 0.132156 0.018194 0.169741 -0.249810 -0.057561 -0.104635 0.101429 -0.048778 -0.006105 0.208267 -0.235870 -0.099239 0.124147 -0.019740 -0.027585 0.035845 -0.010877 0.063357 -0.074374 -0.074065 0.048555 0.019570 -0.011335 0.156031 0.060143 0.202666 0.027961 0.049854 -0.115300 -0.101346 -0.103452 0.009931 -0.143220 -0.177153 0.144096 0.058337 -0.062311 0.001822 0.052095 0.133766 0.017311 0.079655 -0.095884 -0.148345 0.168063 -0.124550 -0.137888 0.164680 -0.006517 -0.252939 0.046197 -0.105698 0.035393 -0.030143 0.047889 0.141853 0.063409 -0.039938 -0.110201 -0.030971 -0.038161 -0.020457 0.051252 -0.037115 -0.040727 -0.095548 0.120452 -0.164892 -0.087108 -0.057333 -0.111833 0.050351 -0.199820 -0.080667 -0.056927 -0.044815 0.081176
27 -0.085582 -0.180876 0.091381 -0.040857 0.124044 -0.153709 0.023900 0.080284 -0.058308 0.080241 -0.106803 0.099159 0.089393 -0.254601 -0.035761 -0.127947 0.008450 -0.028867 0.027327 -0.003767 0.243852 0.064507 0.157388 0.039721 -0.052959 0.028100 -0.009215 0.098308 0.061647 0.166256 -0.031829 0.116971 -0.140339 0.148741 -0.116083 -0.194197 0.111582 0.017714 -0.016515 -0.047173 -0.233117 0.035477 0.098098 0.148779 -0.062171 0.122455 -0.027854 -0.108043 -0.067194 0.058061 -0.054849 0.126047 0.021088 0.134000 -0.253901 -0.022899 -0.106655 0.063033 -0.069319 0.051477 0.160461 -0.190298 -0.136876 0.117010 0.052782 -0.104867 0.039222 -0.033342 0.041047 0.000048 -0.020980 0.056601 0.032919 0.028232 0.059122 0.021211 0.187281 0.056695 0.068102 0.028430 -0.089648 -0.167939 0.001008 -0.201373 -0.107993 0.243527 -0.044565 -0.058925 -0.056897 0.018129 0.102546 0.050309 0.030045 -0.109377 -0.095826 0.210579 -0.190254 -0.017898 0.147400 -0.098197 -0.312557 0.030643 -0.069874 0.046218 0.023123 0.093836 0.151287 0.068499 -0.050801 -0.075834 -0.001144 -0.098183 -0.034956 0.034865 -0.005420 -0.042603 -0.104146 0.088483 -0.130212 0.002731 -0.075799 -0.131350 -0.027998 -0.185506 0.031312 0.044205 -0.038581 0.013292
16 -0.090500 -0.172548 0.096668 -0.038472 0.123988 -0.153810 0.027009 0.069889 -0.064712 0.081075 -0.108242 0.099252 0.088291 -0.255928 -0.039000 -0.127470 0.003881 -0.027859 0.025189 -0.001222 0.237284 0.065724 0.155244 0.034457 -0.056097 0.031218 -0.003331 0.095404 0.061586 0.159497 -0.036853 0.118189 -0.135048 0.145935 -0.116717 -0.182300 0.115845 0.013658 -0.012645 -0.050347 -0.230328 0.040158 0.095649 0.143947 -0.053478 0.115270 -0.031962 -0.105838 -0.073286 0.054958 -0.045727 0.121395 0.023497 0.126508 -0.247528 -0.015173 -0.103623 0.058731 -0.073009 0.050484 0.158032 -0.191564 -0.137616 0.111387 0.057698 -0.109526 0.039990 -0.033180 0.037637 0.002565 -0.009744 0.047956 0.034164 0.031369 0.055498 0.019723 0.184481 0.056830 0.067918 0.039620 -0.081291 -0.171015 0.001157 -0.206846 -0.095802 0.249123 -0.055311 -0.052829 -0.053132 0.014107 0.097441 0.056692 0.020407 -0.105853 -0.085372 0.211176 -0.191608 -0.007439 0.139296 -0.106119 -0.306000 0.031592 -0.065399 0.046540 0.023488 0.092778 0.145241 0.069200 -0.046070 -0.072074 -0.001538 -0.098683 -0.038826 0.037467 -0.002667 -0.037357 -0.104257 0.087489 -0.121485 0.007651 -0.075639 -0.132423 -0.039122 -0.179309 0.046202 0.050356 -0.038122 0.011955
18 -0.064558 -0.194069 0.071408 -0.037555 0.104816 -0.160883 0.002934 0.120826 0.024683 0.067486 -0.090402 0.132644 0.086943 -0.232872 0.023248 -0.133783 -0.016280 -0.052138 0.012066 -0.023164 0.239476 0.040598 0.154267 0.039455 -0.008301 0.036254 -0.008599 0.093336 0.074448 0.136857 -0.028359 0.130558 -0.135208 0.133571 -0.090034 -0.199875 0.094383 0.017065 -0.020298 -0.026350 -0.192503 0.010491 0.122819 0.162071 -0.112435 0.116746 -0.015097 -0.081680 -0.025680 0.080515 -0.111690 0.110946 0.022199 0.155755 -0.235035 -0.038056 -0.093439 0.081056 -0.061329 0.009796 0.180456 -0.209188 -0.103696 0.109670 0.002709 -0.043227 0.036504 -0.021066 0.054652 -0.045274 -0.057071 0.044469 0.027104 -0.002719 0.121749 0.048955 0.189185 0.035631 0.056181 -0.070320 -0.095367 -0.114483 0.003674 -0.156474 -0.144506 0.162113 0.026622 -0.056966 -0.014024 0.042208 0.120260 0.023610 0.061858 -0.104631 -0.130777 0.164655 -0.139275 -0.093020 0.144406 -0.028113 -0.246334 0.039384 -0.085046 0.035262 -0.013484 0.056058 0.131280 0.062588 -0.040905 -0.100274 -0.027087 -0.054557 -0.024851 0.043281 -0.029574 -0.042137 -0.090559 0.099873 -0.142659 -0.057363 -0.060346 -0.117429 0.023227 -0.181924 -0.037374 -0.030085 -0.040664 0.052862
22 -0.070659 -0.188659 0.083085 -0.038392 0.108622 -0.160200 0.011480 0.099616 -0.012382 0.068772 -0.098164 0.119802 0.089530 -0.244613 0.002353 -0.132774 -0.010460 -0.043130 0.025116 -0.013743 0.238612 0.049835 0.155546 0.038897 -0.031519 0.038567 -0.006169 0.093227 0.073253 0.147745 -0.031737 0.122836 -0.142158 0.142034 -0.102835 -0.197128 0.100656 0.013621 -0.016847 -0.038917 -0.200566 0.012896 0.111967 0.161741 -0.091288 0.119198 -0.025751 -0.089313 -0.039049 0.071178 -0.095649 0.113563 0.017987 0.146650 -0.241223 -0.032147 -0.095389 0.080712 -0.066967 0.023635 0.173360 -0.200639 -0.116420 0.114810 0.016322 -0.064670 0.034688 -0.024273 0.049682 -0.027508 -0.043815 0.047689 0.028331 0.010333 0.099962 0.040346 0.182617 0.042803 0.064901 -0.035901 -0.093093 -0.138472 0.002039 -0.177447 -0.126538 0.189422 -0.001111 -0.059729 -0.022618 0.029730 0.115779 0.035768 0.047848 -0.111055 -0.116400 0.179103 -0.159271 -0.064949 0.143642 -0.053475 -0.267292 0.035000 -0.077978 0.040381 0.001648 0.071708 0.140735 0.071059 -0.043775 -0.089546 -0.016625 -0.069510 -0.022699 0.046755 -0.025111 -0.041239 -0.097435 0.099311 -0.142446 -0.036107 -0.065151 -0.125939 0.003923 -0.182864 -0.008763 -0.000482 -0.036498 0.040349
13 -0.071153 -0.196646 0.083595 -0.040620 0.109704 -0.165788 0.010718 0.109876 0.007780 0.071703 -0.096936 0.124524 0.090133 -0.248675 0.012805 -0.132804 -0.013708 -0.050294 0.017600 -0.025882 0.247267 0.046482 0.150491 0.040382 -0.025016 0.033520 -0.003119 0.099941 0.074928 0.144287 -0.033068 0.133240 -0.140833 0.138158 -0.100186 -0.203791 0.105667 0.021786 -0.019251 -0.034589 -0.201950 0.012689 0.123503 0.165839 -0.105441 0.122201 -0.015572 -0.087964 -0.037113 0.081581 -0.107988 0.122650 0.023320 0.154926 -0.249633 -0.039950 -0.100721 0.078296 -0.063219 0.017580 0.183299 -0.208123 -0.116588 0.112132 0.009840 -0.059552 0.035302 -0.025735 0.053492 -0.042873 -0.051287 0.044633 0.024713 0.006276 0.110291 0.040806 0.185352 0.036984 0.056310 -0.055700 -0.091609 -0.130714 0.000893 -0.167103 -0.139050 0.177965 0.011156 -0.058348 -0.021802 0.039079 0.123413 0.031056 0.051210 -0.109298 -0.118896 0.171482 -0.149554 -0.086222 0.140954 -0.039537 -0.258455 0.035968 -0.086100 0.039565 -0.007981 0.059930 0.142245 0.065427 -0.040337 -0.098489 -0.017471 -0.062522 -0.024766 0.049515 -0.030633 -0.043569 -0.096373 0.103520 -0.141697 -0.049419 -0.062183 -0.117324 0.017740 -0.179914 -0.026134 -0.012259 -0.038820 0.050485
23 -0.087302 -0.182196 0.089146 -0.036869 0.123546 -0.157847 0.020188 0.087337 -0.043728 0.077336 -0.106129 0.107600 0.092190 -0.262532 -0.031441 -0.127512 0.002719 -0.031322 0.028604 0.000611 0.245538 0.059367 0.154944 0.040101 -0.048001 0.030451 -0.011966 0.093137 0.062155 0.166621 -0.033488 0.123968 -0.138478 0.148204 -0.121860 -0.199215 0.116373 0.017531 -0.019650 -0.045204 -0.231497 0.032496 0.104542 0.153823 -0.068748 0.121542 -0.030986 -0.102289 -0.066254 0.059265 -0.064313 0.126383 0.024602 0.132351 -0.255961 -0.025271 -0.107258 0.065265 -0.072408 0.042800 0.169792 -0.202892 -0.129753 0.122619 0.047255 -0.101497 0.042162 -0.029331 0.044108 -0.003256 -0.023275 0.055584 0.033915 0.028468 0.066758 0.027742 0.190458 0.058235 0.071468 0.017789 -0.086146 -0.166247 0.005905 -0.202277 -0.113432 0.239679 -0.040683 -0.057316 -0.050895 0.018075 0.110668 0.051224 0.031840 -0.109929 -0.099736 0.206906 -0.186964 -0.028092 0.147262 -0.088142 -0.310764 0.032439 -0.074223 0.047089 0.017757 0.089256 0.147426 0.069862 -0.045261 -0.080096 -0.008159 -0.096720 -0.034825 0.035714 -0.012101 -0.042768 -0.106415 0.091023 -0.130206 -0.005405 -0.071719 -0.131822 -0.026919 -0.189857 0.027229 0.031230 -0.042224 0.018257
10 -0.083201 -0.187247 0.088399 -0.038738 0.121278 -0.157695 0.018740 0.091512 -0.027567 0.072410 -0.099008 0.114030 0.088503 -0.251014 -0.018862 -0.126871 0.001023 -0.035096 0.023046 -0.008697 0.245784 0.056639 0.155758 0.042031 -0.042871 0.031859 -0.005254 0.095340 0.068257 0.154170 -0.035724 0.120901 -0.136824 0.149789 -0.115782 -0.197667 0.111598 0.015162 -0.018777 -0.044509 -0.222673 0.022581 0.111587 0.158777 -0.077048 0.124103 -0.022930 -0.100504 -0.051072 0.061914 -0.077310 0.123357 0.024583 0.139669 -0.254926 -0.024211 -0.100128 0.067433 -0.074563 0.041108 0.172662 -0.201449 -0.130743 0.118187 0.031936 -0.083183 0.037807 -0.031927 0.040796 -0.017889 -0.028762 0.048036 0.033247 0.021422 0.083280 0.033391 0.185521 0.048613 0.062295 -0.006461 -0.093043 -0.154481 0.002238 -0.185679 -0.119751 0.217058 -0.027171 -0.061196 -0.038151 0.021734 0.113359 0.045473 0.042662 -0.106450 -0.102535 0.197479 -0.175587 -0.045825 0.145816 -0.070849 -0.292550 0.031673 -0.077868 0.048123 0.009246 0.081617 0.149329 0.074125 -0.047807 -0.082370 -0.007215 -0.088191 -0.026661 0.040550 -0.014819 -0.040849 -0.096671 0.095152 -0.133519 -0.021949 -0.068904 -0.129577 -0.013925 -0.181525 0.013721 0.018272 -0.043274 0.028416
19 -0.086057 -0.173308 0.098937 -0.039635 0.122153 -0.150800 0.022800 0.066625 -0.064882 0.080139 -0.107327 0.097385 0.088828 -0.254993 -0.044276 -0.122647 0.004296 -0.025933 0.031974 0.007244 0.237005 0.061457 0.152502 0.037075 -0.058140 0.035284 -0.005333 0.095658 0.061911 0.162822 -0.033685 0.116656 -0.134029 0.147850 -0.119586 -0.185703 0.109678 0.020334 -0.009229 -0.044739 -0.228138 0.036027 0.091828 0.141768 -0.051901 0.118550 -0.032226 -0.111271 -0.072647 0.050592 -0.051001 0.119372 0.020489 0.122448 -0.245651 -0.013244 -0.106835 0.057980 -0.070745 0.053030 0.155205 -0.188950 -0.132304 0.117622 0.056443 -0.112851 0.042885 -0.037034 0.035656 0.004516 -0.011941 0.053300 0.032866 0.034775 0.048949 0.017254 0.181414 0.062865 0.066577 0.038012 -0.084203 -0.169620 0.000711 -0.207932 -0.096821 0.246643 -0.053398 -0.053984 -0.059363 0.011557 0.099111 0.058172 0.026930 -0.107208 -0.086620 0.211169 -0.194021 -0.002720 0.139461 -0.105039 -0.305552 0.030549 -0.072214 0.047732 0.025281 0.096061 0.145182 0.070647 -0.048365 -0.074862 -0.001791 -0.101820 -0.033380 0.032407 -0.001273 -0.037081 -0.098480 0.085275 -0.122484 0.013840 -0.074437 -0.134060 -0.039170 -0.177806 0.040385 0.050491 -0.041772 0.004538
21 -0.090405 -0.166801 0.092990 -0.041729 0.118416 -0.151006 0.020068 0.066863 -0.060617 0.081836 -0.101267 0.095716 0.089473 -0.254053 -0.039217 -0.120439 0.006381 -0.024621 0.031450 0.002875 0.238383 0.062523 0.149121 0.037258 -0.056903 0.030029 -0.004569 0.093620 0.062144 0.161477 -0.029135 0.113766 -0.131060 0.149252 -0.120509 -0.187509 0.110217 0.021926 -0.010350 -0.043788 -0.228435 0.038925 0.088479 0.138367 -0.059550 0.120849 -0.033518 -0.104557 -0.066069 0.049638 -0.048958 0.122164 0.024562 0.121812 -0.248895 -0.014232 -0.101155 0.054387 -0.076501 0.055471 0.155445 -0.187440 -0.131991 0.118238 0.055621 -0.106975 0.038975 -0.039726 0.037280 0.002924 -0.012175 0.049524 0.031735 0.034619 0.056558 0.022753 0.175904 0.056820 0.069434 0.036903 -0.086902 -0.164668 0.001173 -0.205575 -0.101158 0.239606 -0.053636 -0.059634 -0.050676 0.010712 0.104378 0.054687 0.024984 -0.104592 -0.084732 0.205306 -0.193101 -0.006060 0.142101 -0.100405 -0.307221 0.027450 -0.071082 0.055972 0.029061 0.096832 0.145366 0.066712 -0.047719 -0.076341 0.002313 -0.097211 -0.034670 0.037191 -0.007810 -0.036762 -0.104656 0.081279 -0.120348 0.008883 -0.072382 -0.135405 -0.034271 -0.181845 0.042697 0.046396 -0.038748 0.003923
12 -0.075415 -0.201080 0.077900 -0.040619 0.108049 -0.168151 0.004973 0.113283 0.012458 0.068906 -0.089469 0.132005 0.087454 -0.241417 0.015835 -0.130963 -0.015503 -0.052121 0.020003 -0.028959 0.247823 0.048070 0.156928 0.039069 -0.022207 0.029297 -0.008339 0.096483 0.073636 0.142353 -0.028586 0.132974 -0.143536 0.135957 -0.100454 -0.201349 0.100473 0.020701 -0.022705 -0.034310 -0.203909 0.010937 0.127995 0.163720 -0.109775 0.125587 -0.013379 -0.087578 -0.036334 0.080267 -0.109731 0.125545 0.017524 0.151856 -0.252029 -0.041537 -0.094397 0.085283 -0.063708 0.021121 0.187875 -0.211263 -0.115793 0.120101 -0.000860 -0.054023 0.038661 -0.020233 0.054559 -0.037681 -0.047031 0.049448 0.026870 0.007129 0.114304 0.043316 0.193802 0.040516 0.059328 -0.055655 -0.094791 -0.124874 -0.000668 -0.167779 -0.143257 0.177795 0.013065 -0.059846 -0.020140 0.033749 0.121505 0.033087 0.057278 -0.106330 -0.119592 0.172266 -0.144676 -0.094218 0.149410 -0.037809 -0.268099 0.035444 -0.084931 0.040963 -0.007685 0.060082 0.140548 0.067483 -0.035065 -0.098651 -0.025409 -0.060697 -0.024086 0.049225 -0.028957 -0.039830 -0.094602 0.105066 -0.149475 -0.056717 -0.065033 -0.121239 0.017318 -0.185409 -0.031173 -0.016448 -0.047051 0.050598
